<?xml version="1.0" encoding="UTF-8"?>
<PMML xmlns="http://www.dmg.org/PMML-4_3" version="4.3">
    <Header copyright="Copyright (c) 2021 Software AG" description="Default description">
        <Application name="Nyoka" version="5.5.0"/>
        <Timestamp>2026-03-16 18:50:11.078347</Timestamp>
    </Header>
    <DataDictionary numberOfFields="19">
        <DataField name="length" optype="continuous" dataType="double"/>
        <DataField name="char_count" optype="continuous" dataType="double"/>
        <DataField name="sentence_count" optype="continuous" dataType="double"/>
        <DataField name="avg_sentence_length" optype="continuous" dataType="double"/>
        <DataField name="exclamation_count" optype="continuous" dataType="double"/>
        <DataField name="question_count" optype="continuous" dataType="double"/>
        <DataField name="tilde_count" optype="continuous" dataType="double"/>
        <DataField name="period_count" optype="continuous" dataType="double"/>
        <DataField name="punct_density" optype="continuous" dataType="double"/>
        <DataField name="emoji_count" optype="continuous" dataType="double"/>
        <DataField name="emoji_density" optype="continuous" dataType="double"/>
        <DataField name="ai_template_count" optype="continuous" dataType="double"/>
        <DataField name="colloquial_count" optype="continuous" dataType="double"/>
        <DataField name="ends_with_period" optype="continuous" dataType="double"/>
        <DataField name="has_complete_structure" optype="continuous" dataType="double"/>
        <DataField name="first_person_count" optype="continuous" dataType="double"/>
        <DataField name="nin_count" optype="continuous" dataType="double"/>
        <DataField name="ni_count" optype="continuous" dataType="double"/>
        <DataField name="is_ai" optype="categorical" dataType="integer">
            <Value value="0"/>
            <Value value="1"/>
        </DataField>
    </DataDictionary>
    <MiningModel modelName="RandomForestClassifier" functionName="classification" algorithmName="randomForest">
        <MiningSchema>
            <MiningField name="length" usageType="active" optype="continuous"/>
            <MiningField name="char_count" usageType="active" optype="continuous"/>
            <MiningField name="sentence_count" usageType="active" optype="continuous"/>
            <MiningField name="avg_sentence_length" usageType="active" optype="continuous"/>
            <MiningField name="exclamation_count" usageType="active" optype="continuous"/>
            <MiningField name="question_count" usageType="active" optype="continuous"/>
            <MiningField name="tilde_count" usageType="active" optype="continuous"/>
            <MiningField name="period_count" usageType="active" optype="continuous"/>
            <MiningField name="punct_density" usageType="active" optype="continuous"/>
            <MiningField name="emoji_count" usageType="active" optype="continuous"/>
            <MiningField name="emoji_density" usageType="active" optype="continuous"/>
            <MiningField name="ai_template_count" usageType="active" optype="continuous"/>
            <MiningField name="colloquial_count" usageType="active" optype="continuous"/>
            <MiningField name="ends_with_period" usageType="active" optype="continuous"/>
            <MiningField name="has_complete_structure" usageType="active" optype="continuous"/>
            <MiningField name="first_person_count" usageType="active" optype="continuous"/>
            <MiningField name="nin_count" usageType="active" optype="continuous"/>
            <MiningField name="ni_count" usageType="active" optype="continuous"/>
            <MiningField name="is_ai" usageType="target" optype="categorical"/>
        </MiningSchema>
        <Output>
            <OutputField name="probability_0" optype="continuous" dataType="double" feature="probability" value="0"/>
            <OutputField name="probability_1" optype="continuous" dataType="double" feature="probability" value="1"/>
            <OutputField name="predicted_is_ai" optype="categorical" dataType="integer" feature="predictedValue"/>
        </Output>
        <Segmentation multipleModelMethod="average" missingThreshold="1">
            <Segment id="0" weight="1">
                <True/>
                <TreeModel modelName="DecisionTreeClassifier" functionName="classification" missingValuePenalty="1.0">
                    <MiningSchema>
                        <MiningField name="length" usageType="active"/>
                        <MiningField name="char_count" usageType="active"/>
                        <MiningField name="sentence_count" usageType="active"/>
                        <MiningField name="avg_sentence_length" usageType="active"/>
                        <MiningField name="exclamation_count" usageType="active"/>
                        <MiningField name="question_count" usageType="active"/>
                        <MiningField name="tilde_count" usageType="active"/>
                        <MiningField name="period_count" usageType="active"/>
                        <MiningField name="punct_density" usageType="active"/>
                        <MiningField name="emoji_count" usageType="active"/>
                        <MiningField name="emoji_density" usageType="active"/>
                        <MiningField name="ai_template_count" usageType="active"/>
                        <MiningField name="colloquial_count" usageType="active"/>
                        <MiningField name="ends_with_period" usageType="active"/>
                        <MiningField name="has_complete_structure" usageType="active"/>
                        <MiningField name="first_person_count" usageType="active"/>
                        <MiningField name="nin_count" usageType="active"/>
                        <MiningField name="ni_count" usageType="active"/>
                    </MiningSchema>
                    <Node id="0" recordCount="7.0">
                        <True/>
                        <Node id="1" score="0" recordCount="4.0">
                            <SimplePredicate field="length" operator="lessOrEqual" value="34.5"/>
                            <ScoreDistribution value="0" recordCount="8.0" confidence="1.0"/>
                            <ScoreDistribution value="1" recordCount="0.0" confidence="0.0"/>
                        </Node>
                        <Node id="2" score="1" recordCount="3.0">
                            <SimplePredicate field="length" operator="greaterThan" value="34.5"/>
                            <ScoreDistribution value="0" recordCount="0.0" confidence="0.0"/>
                            <ScoreDistribution value="1" recordCount="4.0" confidence="1.0"/>
                        </Node>
                    </Node>
                </TreeModel>
            </Segment>
            <Segment id="1" weight="1">
                <True/>
                <TreeModel modelName="DecisionTreeClassifier" functionName="classification" missingValuePenalty="1.0">
                    <MiningSchema>
                        <MiningField name="length" usageType="active"/>
                        <MiningField name="char_count" usageType="active"/>
                        <MiningField name="sentence_count" usageType="active"/>
                        <MiningField name="avg_sentence_length" usageType="active"/>
                        <MiningField name="exclamation_count" usageType="active"/>
                        <MiningField name="question_count" usageType="active"/>
                        <MiningField name="tilde_count" usageType="active"/>
                        <MiningField name="period_count" usageType="active"/>
                        <MiningField name="punct_density" usageType="active"/>
                        <MiningField name="emoji_count" usageType="active"/>
                        <MiningField name="emoji_density" usageType="active"/>
                        <MiningField name="ai_template_count" usageType="active"/>
                        <MiningField name="colloquial_count" usageType="active"/>
                        <MiningField name="ends_with_period" usageType="active"/>
                        <MiningField name="has_complete_structure" usageType="active"/>
                        <MiningField name="first_person_count" usageType="active"/>
                        <MiningField name="nin_count" usageType="active"/>
                        <MiningField name="ni_count" usageType="active"/>
                    </MiningSchema>
                    <Node id="0" recordCount="6.0">
                        <True/>
                        <Node id="1" score="0" recordCount="3.0">
                            <SimplePredicate field="sentence_count" operator="lessOrEqual" value="1.5"/>
                            <ScoreDistribution value="0" recordCount="5.0" confidence="1.0"/>
                            <ScoreDistribution value="1" recordCount="0.0" confidence="0.0"/>
                        </Node>
                        <Node id="2" score="1" recordCount="3.0">
                            <SimplePredicate field="sentence_count" operator="greaterThan" value="1.5"/>
                            <ScoreDistribution value="0" recordCount="0.0" confidence="0.0"/>
                            <ScoreDistribution value="1" recordCount="7.0" confidence="1.0"/>
                        </Node>
                    </Node>
                </TreeModel>
            </Segment>
            <Segment id="2" weight="1">
                <True/>
                <TreeModel modelName="DecisionTreeClassifier" functionName="classification" missingValuePenalty="1.0">
                    <MiningSchema>
                        <MiningField name="length" usageType="active"/>
                        <MiningField name="char_count" usageType="active"/>
                        <MiningField name="sentence_count" usageType="active"/>
                        <MiningField name="avg_sentence_length" usageType="active"/>
                        <MiningField name="exclamation_count" usageType="active"/>
                        <MiningField name="question_count" usageType="active"/>
                        <MiningField name="tilde_count" usageType="active"/>
                        <MiningField name="period_count" usageType="active"/>
                        <MiningField name="punct_density" usageType="active"/>
                        <MiningField name="emoji_count" usageType="active"/>
                        <MiningField name="emoji_density" usageType="active"/>
                        <MiningField name="ai_template_count" usageType="active"/>
                        <MiningField name="colloquial_count" usageType="active"/>
                        <MiningField name="ends_with_period" usageType="active"/>
                        <MiningField name="has_complete_structure" usageType="active"/>
                        <MiningField name="first_person_count" usageType="active"/>
                        <MiningField name="nin_count" usageType="active"/>
                        <MiningField name="ni_count" usageType="active"/>
                    </MiningSchema>
                    <Node id="0" recordCount="9.0">
                        <True/>
                        <Node id="1" score="1" recordCount="1.0">
                            <SimplePredicate field="avg_sentence_length" operator="lessOrEqual" value="11.75"/>
                            <ScoreDistribution value="0" recordCount="0.0" confidence="0.0"/>
                            <ScoreDistribution value="1" recordCount="1.0" confidence="1.0"/>
                        </Node>
                        <Node id="2" recordCount="8.0">
                            <SimplePredicate field="avg_sentence_length" operator="greaterThan" value="11.75"/>
                            <Node id="3" score="0" recordCount="7.0">
                                <SimplePredicate field="emoji_density" operator="lessOrEqual" value="0.016129032"/>
                                <ScoreDistribution value="0" recordCount="10.0" confidence="1.0"/>
                                <ScoreDistribution value="1" recordCount="0.0" confidence="0.0"/>
                            </Node>
                            <Node id="4" score="1" recordCount="1.0">
                                <SimplePredicate field="emoji_density" operator="greaterThan" value="0.016129032"/>
                                <ScoreDistribution value="0" recordCount="0.0" confidence="0.0"/>
                                <ScoreDistribution value="1" recordCount="1.0" confidence="1.0"/>
                            </Node>
                        </Node>
                    </Node>
                </TreeModel>
            </Segment>
            <Segment id="3" weight="1">
                <True/>
                <TreeModel modelName="DecisionTreeClassifier" functionName="classification" missingValuePenalty="1.0">
                    <MiningSchema>
                        <MiningField name="length" usageType="active"/>
                        <MiningField name="char_count" usageType="active"/>
                        <MiningField name="sentence_count" usageType="active"/>
                        <MiningField name="avg_sentence_length" usageType="active"/>
                        <MiningField name="exclamation_count" usageType="active"/>
                        <MiningField name="question_count" usageType="active"/>
                        <MiningField name="tilde_count" usageType="active"/>
                        <MiningField name="period_count" usageType="active"/>
                        <MiningField name="punct_density" usageType="active"/>
                        <MiningField name="emoji_count" usageType="active"/>
                        <MiningField name="emoji_density" usageType="active"/>
                        <MiningField name="ai_template_count" usageType="active"/>
                        <MiningField name="colloquial_count" usageType="active"/>
                        <MiningField name="ends_with_period" usageType="active"/>
                        <MiningField name="has_complete_structure" usageType="active"/>
                        <MiningField name="first_person_count" usageType="active"/>
                        <MiningField name="nin_count" usageType="active"/>
                        <MiningField name="ni_count" usageType="active"/>
                    </MiningSchema>
                    <Node id="0" recordCount="10.0">
                        <True/>
                        <Node id="1" score="0" recordCount="4.0">
                            <SimplePredicate field="has_complete_structure" operator="lessOrEqual" value="0.5"/>
                            <ScoreDistribution value="0" recordCount="5.0" confidence="1.0"/>
                            <ScoreDistribution value="1" recordCount="0.0" confidence="0.0"/>
                        </Node>
                        <Node id="2" recordCount="6.0">
                            <SimplePredicate field="has_complete_structure" operator="greaterThan" value="0.5"/>
                            <Node id="3" score="0" recordCount="1.0">
                                <SimplePredicate field="length" operator="lessOrEqual" value="38.5"/>
                                <ScoreDistribution value="0" recordCount="1.0" confidence="1.0"/>
                                <ScoreDistribution value="1" recordCount="0.0" confidence="0.0"/>
                            </Node>
                            <Node id="4" score="1" recordCount="5.0">
                                <SimplePredicate field="length" operator="greaterThan" value="38.5"/>
                                <ScoreDistribution value="0" recordCount="0.0" confidence="0.0"/>
                                <ScoreDistribution value="1" recordCount="6.0" confidence="1.0"/>
                            </Node>
                        </Node>
                    </Node>
                </TreeModel>
            </Segment>
            <Segment id="4" weight="1">
                <True/>
                <TreeModel modelName="DecisionTreeClassifier" functionName="classification" missingValuePenalty="1.0">
                    <MiningSchema>
                        <MiningField name="length" usageType="active"/>
                        <MiningField name="char_count" usageType="active"/>
                        <MiningField name="sentence_count" usageType="active"/>
                        <MiningField name="avg_sentence_length" usageType="active"/>
                        <MiningField name="exclamation_count" usageType="active"/>
                        <MiningField name="question_count" usageType="active"/>
                        <MiningField name="tilde_count" usageType="active"/>
                        <MiningField name="period_count" usageType="active"/>
                        <MiningField name="punct_density" usageType="active"/>
                        <MiningField name="emoji_count" usageType="active"/>
                        <MiningField name="emoji_density" usageType="active"/>
                        <MiningField name="ai_template_count" usageType="active"/>
                        <MiningField name="colloquial_count" usageType="active"/>
                        <MiningField name="ends_with_period" usageType="active"/>
                        <MiningField name="has_complete_structure" usageType="active"/>
                        <MiningField name="first_person_count" usageType="active"/>
                        <MiningField name="nin_count" usageType="active"/>
                        <MiningField name="ni_count" usageType="active"/>
                    </MiningSchema>
                    <Node id="0" recordCount="7.0">
                        <True/>
                        <Node id="1" score="0" recordCount="4.0">
                            <SimplePredicate field="emoji_count" operator="lessOrEqual" value="0.5"/>
                            <ScoreDistribution value="0" recordCount="7.0" confidence="1.0"/>
                            <ScoreDistribution value="1" recordCount="0.0" confidence="0.0"/>
                        </Node>
                        <Node id="2" score="1" recordCount="3.0">
                            <SimplePredicate field="emoji_count" operator="greaterThan" value="0.5"/>
                            <ScoreDistribution value="0" recordCount="0.0" confidence="0.0"/>
                            <ScoreDistribution value="1" recordCount="5.0" confidence="1.0"/>
                        </Node>
                    </Node>
                </TreeModel>
            </Segment>
            <Segment id="5" weight="1">
                <True/>
                <TreeModel modelName="DecisionTreeClassifier" functionName="classification" missingValuePenalty="1.0">
                    <MiningSchema>
                        <MiningField name="length" usageType="active"/>
                        <MiningField name="char_count" usageType="active"/>
                        <MiningField name="sentence_count" usageType="active"/>
                        <MiningField name="avg_sentence_length" usageType="active"/>
                        <MiningField name="exclamation_count" usageType="active"/>
                        <MiningField name="question_count" usageType="active"/>
                        <MiningField name="tilde_count" usageType="active"/>
                        <MiningField name="period_count" usageType="active"/>
                        <MiningField name="punct_density" usageType="active"/>
                        <MiningField name="emoji_count" usageType="active"/>
                        <MiningField name="emoji_density" usageType="active"/>
                        <MiningField name="ai_template_count" usageType="active"/>
                        <MiningField name="colloquial_count" usageType="active"/>
                        <MiningField name="ends_with_period" usageType="active"/>
                        <MiningField name="has_complete_structure" usageType="active"/>
                        <MiningField name="first_person_count" usageType="active"/>
                        <MiningField name="nin_count" usageType="active"/>
                        <MiningField name="ni_count" usageType="active"/>
                    </MiningSchema>
                    <Node id="0" recordCount="8.0">
                        <True/>
                        <Node id="1" score="0" recordCount="5.0">
                            <SimplePredicate field="char_count" operator="lessOrEqual" value="38.5"/>
                            <ScoreDistribution value="0" recordCount="6.0" confidence="1.0"/>
                            <ScoreDistribution value="1" recordCount="0.0" confidence="0.0"/>
                        </Node>
                        <Node id="2" score="1" recordCount="3.0">
                            <SimplePredicate field="char_count" operator="greaterThan" value="38.5"/>
                            <ScoreDistribution value="0" recordCount="0.0" confidence="0.0"/>
                            <ScoreDistribution value="1" recordCount="6.0" confidence="1.0"/>
                        </Node>
                    </Node>
                </TreeModel>
            </Segment>
            <Segment id="6" weight="1">
                <True/>
                <TreeModel modelName="DecisionTreeClassifier" functionName="classification" missingValuePenalty="1.0">
                    <MiningSchema>
                        <MiningField name="length" usageType="active"/>
                        <MiningField name="char_count" usageType="active"/>
                        <MiningField name="sentence_count" usageType="active"/>
                        <MiningField name="avg_sentence_length" usageType="active"/>
                        <MiningField name="exclamation_count" usageType="active"/>
                        <MiningField name="question_count" usageType="active"/>
                        <MiningField name="tilde_count" usageType="active"/>
                        <MiningField name="period_count" usageType="active"/>
                        <MiningField name="punct_density" usageType="active"/>
                        <MiningField name="emoji_count" usageType="active"/>
                        <MiningField name="emoji_density" usageType="active"/>
                        <MiningField name="ai_template_count" usageType="active"/>
                        <MiningField name="colloquial_count" usageType="active"/>
                        <MiningField name="ends_with_period" usageType="active"/>
                        <MiningField name="has_complete_structure" usageType="active"/>
                        <MiningField name="first_person_count" usageType="active"/>
                        <MiningField name="nin_count" usageType="active"/>
                        <MiningField name="ni_count" usageType="active"/>
                    </MiningSchema>
                    <Node id="0" recordCount="6.0">
                        <True/>
                        <Node id="1" score="0" recordCount="2.0">
                            <SimplePredicate field="char_count" operator="lessOrEqual" value="33.0"/>
                            <ScoreDistribution value="0" recordCount="5.0" confidence="1.0"/>
                            <ScoreDistribution value="1" recordCount="0.0" confidence="0.0"/>
                        </Node>
                        <Node id="2" score="1" recordCount="4.0">
                            <SimplePredicate field="char_count" operator="greaterThan" value="33.0"/>
                            <ScoreDistribution value="0" recordCount="0.0" confidence="0.0"/>
                            <ScoreDistribution value="1" recordCount="7.0" confidence="1.0"/>
                        </Node>
                    </Node>
                </TreeModel>
            </Segment>
            <Segment id="7" weight="1">
                <True/>
                <TreeModel modelName="DecisionTreeClassifier" functionName="classification" missingValuePenalty="1.0">
                    <MiningSchema>
                        <MiningField name="length" usageType="active"/>
                        <MiningField name="char_count" usageType="active"/>
                        <MiningField name="sentence_count" usageType="active"/>
                        <MiningField name="avg_sentence_length" usageType="active"/>
                        <MiningField name="exclamation_count" usageType="active"/>
                        <MiningField name="question_count" usageType="active"/>
                        <MiningField name="tilde_count" usageType="active"/>
                        <MiningField name="period_count" usageType="active"/>
                        <MiningField name="punct_density" usageType="active"/>
                        <MiningField name="emoji_count" usageType="active"/>
                        <MiningField name="emoji_density" usageType="active"/>
                        <MiningField name="ai_template_count" usageType="active"/>
                        <MiningField name="colloquial_count" usageType="active"/>
                        <MiningField name="ends_with_period" usageType="active"/>
                        <MiningField name="has_complete_structure" usageType="active"/>
                        <MiningField name="first_person_count" usageType="active"/>
                        <MiningField name="nin_count" usageType="active"/>
                        <MiningField name="ni_count" usageType="active"/>
                    </MiningSchema>
                    <Node id="0" recordCount="10.0">
                        <True/>
                        <Node id="1" score="0" recordCount="6.0">
                            <SimplePredicate field="length" operator="lessOrEqual" value="38.5"/>
                            <ScoreDistribution value="0" recordCount="8.0" confidence="1.0"/>
                            <ScoreDistribution value="1" recordCount="0.0" confidence="0.0"/>
                        </Node>
                        <Node id="2" score="1" recordCount="4.0">
                            <SimplePredicate field="length" operator="greaterThan" value="38.5"/>
                            <ScoreDistribution value="0" recordCount="0.0" confidence="0.0"/>
                            <ScoreDistribution value="1" recordCount="4.0" confidence="1.0"/>
                        </Node>
                    </Node>
                </TreeModel>
            </Segment>
            <Segment id="8" weight="1">
                <True/>
                <TreeModel modelName="DecisionTreeClassifier" functionName="classification" missingValuePenalty="1.0">
                    <MiningSchema>
                        <MiningField name="length" usageType="active"/>
                        <MiningField name="char_count" usageType="active"/>
                        <MiningField name="sentence_count" usageType="active"/>
                        <MiningField name="avg_sentence_length" usageType="active"/>
                        <MiningField name="exclamation_count" usageType="active"/>
                        <MiningField name="question_count" usageType="active"/>
                        <MiningField name="tilde_count" usageType="active"/>
                        <MiningField name="period_count" usageType="active"/>
                        <MiningField name="punct_density" usageType="active"/>
                        <MiningField name="emoji_count" usageType="active"/>
                        <MiningField name="emoji_density" usageType="active"/>
                        <MiningField name="ai_template_count" usageType="active"/>
                        <MiningField name="colloquial_count" usageType="active"/>
                        <MiningField name="ends_with_period" usageType="active"/>
                        <MiningField name="has_complete_structure" usageType="active"/>
                        <MiningField name="first_person_count" usageType="active"/>
                        <MiningField name="nin_count" usageType="active"/>
                        <MiningField name="ni_count" usageType="active"/>
                    </MiningSchema>
                    <Node id="0" recordCount="7.0">
                        <True/>
                        <Node id="1" score="0" recordCount="4.0">
                            <SimplePredicate field="char_count" operator="lessOrEqual" value="38.5"/>
                            <ScoreDistribution value="0" recordCount="6.0" confidence="1.0"/>
                            <ScoreDistribution value="1" recordCount="0.0" confidence="0.0"/>
                        </Node>
                        <Node id="2" score="1" recordCount="3.0">
                            <SimplePredicate field="char_count" operator="greaterThan" value="38.5"/>
                            <ScoreDistribution value="0" recordCount="0.0" confidence="0.0"/>
                            <ScoreDistribution value="1" recordCount="6.0" confidence="1.0"/>
                        </Node>
                    </Node>
                </TreeModel>
            </Segment>
            <Segment id="9" weight="1">
                <True/>
                <TreeModel modelName="DecisionTreeClassifier" functionName="classification" missingValuePenalty="1.0">
                    <MiningSchema>
                        <MiningField name="length" usageType="active"/>
                        <MiningField name="char_count" usageType="active"/>
                        <MiningField name="sentence_count" usageType="active"/>
                        <MiningField name="avg_sentence_length" usageType="active"/>
                        <MiningField name="exclamation_count" usageType="active"/>
                        <MiningField name="question_count" usageType="active"/>
                        <MiningField name="tilde_count" usageType="active"/>
                        <MiningField name="period_count" usageType="active"/>
                        <MiningField name="punct_density" usageType="active"/>
                        <MiningField name="emoji_count" usageType="active"/>
                        <MiningField name="emoji_density" usageType="active"/>
                        <MiningField name="ai_template_count" usageType="active"/>
                        <MiningField name="colloquial_count" usageType="active"/>
                        <MiningField name="ends_with_period" usageType="active"/>
                        <MiningField name="has_complete_structure" usageType="active"/>
                        <MiningField name="first_person_count" usageType="active"/>
                        <MiningField name="nin_count" usageType="active"/>
                        <MiningField name="ni_count" usageType="active"/>
                    </MiningSchema>
                    <Node id="0" recordCount="7.0">
                        <True/>
                        <Node id="1" score="0" recordCount="3.0">
                            <SimplePredicate field="exclamation_count" operator="lessOrEqual" value="0.5"/>
                            <ScoreDistribution value="0" recordCount="5.0" confidence="1.0"/>
                            <ScoreDistribution value="1" recordCount="0.0" confidence="0.0"/>
                        </Node>
                        <Node id="2" recordCount="4.0">
                            <SimplePredicate field="exclamation_count" operator="greaterThan" value="0.5"/>
                            <Node id="3" score="0" recordCount="1.0">
                                <SimplePredicate field="length" operator="lessOrEqual" value="38.5"/>
                                <ScoreDistribution value="0" recordCount="1.0" confidence="1.0"/>
                                <ScoreDistribution value="1" recordCount="0.0" confidence="0.0"/>
                            </Node>
                            <Node id="4" score="1" recordCount="3.0">
                                <SimplePredicate field="length" operator="greaterThan" value="38.5"/>
                                <ScoreDistribution value="0" recordCount="0.0" confidence="0.0"/>
                                <ScoreDistribution value="1" recordCount="6.0" confidence="1.0"/>
                            </Node>
                        </Node>
                    </Node>
                </TreeModel>
            </Segment>
            <Segment id="10" weight="1">
                <True/>
                <TreeModel modelName="DecisionTreeClassifier" functionName="classification" missingValuePenalty="1.0">
                    <MiningSchema>
                        <MiningField name="length" usageType="active"/>
                        <MiningField name="char_count" usageType="active"/>
                        <MiningField name="sentence_count" usageType="active"/>
                        <MiningField name="avg_sentence_length" usageType="active"/>
                        <MiningField name="exclamation_count" usageType="active"/>
                        <MiningField name="question_count" usageType="active"/>
                        <MiningField name="tilde_count" usageType="active"/>
                        <MiningField name="period_count" usageType="active"/>
                        <MiningField name="punct_density" usageType="active"/>
                        <MiningField name="emoji_count" usageType="active"/>
                        <MiningField name="emoji_density" usageType="active"/>
                        <MiningField name="ai_template_count" usageType="active"/>
                        <MiningField name="colloquial_count" usageType="active"/>
                        <MiningField name="ends_with_period" usageType="active"/>
                        <MiningField name="has_complete_structure" usageType="active"/>
                        <MiningField name="first_person_count" usageType="active"/>
                        <MiningField name="nin_count" usageType="active"/>
                        <MiningField name="ni_count" usageType="active"/>
                    </MiningSchema>
                    <Node id="0" recordCount="8.0">
                        <True/>
                        <Node id="1" score="0" recordCount="6.0">
                            <SimplePredicate field="emoji_count" operator="lessOrEqual" value="0.5"/>
                            <ScoreDistribution value="0" recordCount="9.0" confidence="1.0"/>
                            <ScoreDistribution value="1" recordCount="0.0" confidence="0.0"/>
                        </Node>
                        <Node id="2" score="1" recordCount="2.0">
                            <SimplePredicate field="emoji_count" operator="greaterThan" value="0.5"/>
                            <ScoreDistribution value="0" recordCount="0.0" confidence="0.0"/>
                            <ScoreDistribution value="1" recordCount="3.0" confidence="1.0"/>
                        </Node>
                    </Node>
                </TreeModel>
            </Segment>
            <Segment id="11" weight="1">
                <True/>
                <TreeModel modelName="DecisionTreeClassifier" functionName="classification" missingValuePenalty="1.0">
                    <MiningSchema>
                        <MiningField name="length" usageType="active"/>
                        <MiningField name="char_count" usageType="active"/>
                        <MiningField name="sentence_count" usageType="active"/>
                        <MiningField name="avg_sentence_length" usageType="active"/>
                        <MiningField name="exclamation_count" usageType="active"/>
                        <MiningField name="question_count" usageType="active"/>
                        <MiningField name="tilde_count" usageType="active"/>
                        <MiningField name="period_count" usageType="active"/>
                        <MiningField name="punct_density" usageType="active"/>
                        <MiningField name="emoji_count" usageType="active"/>
                        <MiningField name="emoji_density" usageType="active"/>
                        <MiningField name="ai_template_count" usageType="active"/>
                        <MiningField name="colloquial_count" usageType="active"/>
                        <MiningField name="ends_with_period" usageType="active"/>
                        <MiningField name="has_complete_structure" usageType="active"/>
                        <MiningField name="first_person_count" usageType="active"/>
                        <MiningField name="nin_count" usageType="active"/>
                        <MiningField name="ni_count" usageType="active"/>
                    </MiningSchema>
                    <Node id="0" recordCount="9.0">
                        <True/>
                        <Node id="1" score="0" recordCount="6.0">
                            <SimplePredicate field="sentence_count" operator="lessOrEqual" value="1.5"/>
                            <ScoreDistribution value="0" recordCount="9.0" confidence="1.0"/>
                            <ScoreDistribution value="1" recordCount="0.0" confidence="0.0"/>
                        </Node>
                        <Node id="2" recordCount="3.0">
                            <SimplePredicate field="sentence_count" operator="greaterThan" value="1.5"/>
                            <Node id="3" recordCount="2.0">
                                <SimplePredicate field="ni_count" operator="lessOrEqual" value="0.5"/>
                                <Node id="4" score="0" recordCount="1.0">
                                    <SimplePredicate field="tilde_count" operator="lessOrEqual" value="0.5"/>
                                    <ScoreDistribution value="0" recordCount="1.0" confidence="1.0"/>
                                    <ScoreDistribution value="1" recordCount="0.0" confidence="0.0"/>
                                </Node>
                                <Node id="5" score="1" recordCount="1.0">
                                    <SimplePredicate field="tilde_count" operator="greaterThan" value="0.5"/>
                                    <ScoreDistribution value="0" recordCount="0.0" confidence="0.0"/>
                                    <ScoreDistribution value="1" recordCount="1.0" confidence="1.0"/>
                                </Node>
                            </Node>
                            <Node id="6" score="1" recordCount="1.0">
                                <SimplePredicate field="ni_count" operator="greaterThan" value="0.5"/>
                                <ScoreDistribution value="0" recordCount="0.0" confidence="0.0"/>
                                <ScoreDistribution value="1" recordCount="1.0" confidence="1.0"/>
                            </Node>
                        </Node>
                    </Node>
                </TreeModel>
            </Segment>
            <Segment id="12" weight="1">
                <True/>
                <TreeModel modelName="DecisionTreeClassifier" functionName="classification" missingValuePenalty="1.0">
                    <MiningSchema>
                        <MiningField name="length" usageType="active"/>
                        <MiningField name="char_count" usageType="active"/>
                        <MiningField name="sentence_count" usageType="active"/>
                        <MiningField name="avg_sentence_length" usageType="active"/>
                        <MiningField name="exclamation_count" usageType="active"/>
                        <MiningField name="question_count" usageType="active"/>
                        <MiningField name="tilde_count" usageType="active"/>
                        <MiningField name="period_count" usageType="active"/>
                        <MiningField name="punct_density" usageType="active"/>
                        <MiningField name="emoji_count" usageType="active"/>
                        <MiningField name="emoji_density" usageType="active"/>
                        <MiningField name="ai_template_count" usageType="active"/>
                        <MiningField name="colloquial_count" usageType="active"/>
                        <MiningField name="ends_with_period" usageType="active"/>
                        <MiningField name="has_complete_structure" usageType="active"/>
                        <MiningField name="first_person_count" usageType="active"/>
                        <MiningField name="nin_count" usageType="active"/>
                        <MiningField name="ni_count" usageType="active"/>
                    </MiningSchema>
                    <Node id="0" recordCount="10.0">
                        <True/>
                        <Node id="1" score="0" recordCount="6.0">
                            <SimplePredicate field="length" operator="lessOrEqual" value="38.5"/>
                            <ScoreDistribution value="0" recordCount="6.0" confidence="1.0"/>
                            <ScoreDistribution value="1" recordCount="0.0" confidence="0.0"/>
                        </Node>
                        <Node id="2" score="1" recordCount="4.0">
                            <SimplePredicate field="length" operator="greaterThan" value="38.5"/>
                            <ScoreDistribution value="0" recordCount="0.0" confidence="0.0"/>
                            <ScoreDistribution value="1" recordCount="6.0" confidence="1.0"/>
                        </Node>
                    </Node>
                </TreeModel>
            </Segment>
            <Segment id="13" weight="1">
                <True/>
                <TreeModel modelName="DecisionTreeClassifier" functionName="classification" missingValuePenalty="1.0">
                    <MiningSchema>
                        <MiningField name="length" usageType="active"/>
                        <MiningField name="char_count" usageType="active"/>
                        <MiningField name="sentence_count" usageType="active"/>
                        <MiningField name="avg_sentence_length" usageType="active"/>
                        <MiningField name="exclamation_count" usageType="active"/>
                        <MiningField name="question_count" usageType="active"/>
                        <MiningField name="tilde_count" usageType="active"/>
                        <MiningField name="period_count" usageType="active"/>
                        <MiningField name="punct_density" usageType="active"/>
                        <MiningField name="emoji_count" usageType="active"/>
                        <MiningField name="emoji_density" usageType="active"/>
                        <MiningField name="ai_template_count" usageType="active"/>
                        <MiningField name="colloquial_count" usageType="active"/>
                        <MiningField name="ends_with_period" usageType="active"/>
                        <MiningField name="has_complete_structure" usageType="active"/>
                        <MiningField name="first_person_count" usageType="active"/>
                        <MiningField name="nin_count" usageType="active"/>
                        <MiningField name="ni_count" usageType="active"/>
                    </MiningSchema>
                    <Node id="0" recordCount="6.0">
                        <True/>
                        <Node id="1" score="0" recordCount="5.0">
                            <SimplePredicate field="sentence_count" operator="lessOrEqual" value="3.0"/>
                            <ScoreDistribution value="0" recordCount="10.0" confidence="1.0"/>
                            <ScoreDistribution value="1" recordCount="0.0" confidence="0.0"/>
                        </Node>
                        <Node id="2" score="1" recordCount="1.0">
                            <SimplePredicate field="sentence_count" operator="greaterThan" value="3.0"/>
                            <ScoreDistribution value="0" recordCount="0.0" confidence="0.0"/>
                            <ScoreDistribution value="1" recordCount="2.0" confidence="1.0"/>
                        </Node>
                    </Node>
                </TreeModel>
            </Segment>
            <Segment id="14" weight="1">
                <True/>
                <TreeModel modelName="DecisionTreeClassifier" functionName="classification" missingValuePenalty="1.0">
                    <MiningSchema>
                        <MiningField name="length" usageType="active"/>
                        <MiningField name="char_count" usageType="active"/>
                        <MiningField name="sentence_count" usageType="active"/>
                        <MiningField name="avg_sentence_length" usageType="active"/>
                        <MiningField name="exclamation_count" usageType="active"/>
                        <MiningField name="question_count" usageType="active"/>
                        <MiningField name="tilde_count" usageType="active"/>
                        <MiningField name="period_count" usageType="active"/>
                        <MiningField name="punct_density" usageType="active"/>
                        <MiningField name="emoji_count" usageType="active"/>
                        <MiningField name="emoji_density" usageType="active"/>
                        <MiningField name="ai_template_count" usageType="active"/>
                        <MiningField name="colloquial_count" usageType="active"/>
                        <MiningField name="ends_with_period" usageType="active"/>
                        <MiningField name="has_complete_structure" usageType="active"/>
                        <MiningField name="first_person_count" usageType="active"/>
                        <MiningField name="nin_count" usageType="active"/>
                        <MiningField name="ni_count" usageType="active"/>
                    </MiningSchema>
                    <Node id="0" recordCount="8.0">
                        <True/>
                        <Node id="1" score="0" recordCount="4.0">
                            <SimplePredicate field="emoji_density" operator="lessOrEqual" value="0.010204081"/>
                            <ScoreDistribution value="0" recordCount="5.0" confidence="1.0"/>
                            <ScoreDistribution value="1" recordCount="0.0" confidence="0.0"/>
                        </Node>
                        <Node id="2" score="1" recordCount="4.0">
                            <SimplePredicate field="emoji_density" operator="greaterThan" value="0.010204081"/>
                            <ScoreDistribution value="0" recordCount="0.0" confidence="0.0"/>
                            <ScoreDistribution value="1" recordCount="7.0" confidence="1.0"/>
                        </Node>
                    </Node>
                </TreeModel>
            </Segment>
            <Segment id="15" weight="1">
                <True/>
                <TreeModel modelName="DecisionTreeClassifier" functionName="classification" missingValuePenalty="1.0">
                    <MiningSchema>
                        <MiningField name="length" usageType="active"/>
                        <MiningField name="char_count" usageType="active"/>
                        <MiningField name="sentence_count" usageType="active"/>
                        <MiningField name="avg_sentence_length" usageType="active"/>
                        <MiningField name="exclamation_count" usageType="active"/>
                        <MiningField name="question_count" usageType="active"/>
                        <MiningField name="tilde_count" usageType="active"/>
                        <MiningField name="period_count" usageType="active"/>
                        <MiningField name="punct_density" usageType="active"/>
                        <MiningField name="emoji_count" usageType="active"/>
                        <MiningField name="emoji_density" usageType="active"/>
                        <MiningField name="ai_template_count" usageType="active"/>
                        <MiningField name="colloquial_count" usageType="active"/>
                        <MiningField name="ends_with_period" usageType="active"/>
                        <MiningField name="has_complete_structure" usageType="active"/>
                        <MiningField name="first_person_count" usageType="active"/>
                        <MiningField name="nin_count" usageType="active"/>
                        <MiningField name="ni_count" usageType="active"/>
                    </MiningSchema>
                    <Node id="0" recordCount="8.0">
                        <True/>
                        <Node id="1" score="0" recordCount="5.0">
                            <SimplePredicate field="emoji_density" operator="lessOrEqual" value="0.010204081"/>
                            <ScoreDistribution value="0" recordCount="8.0" confidence="1.0"/>
                            <ScoreDistribution value="1" recordCount="0.0" confidence="0.0"/>
                        </Node>
                        <Node id="2" score="1" recordCount="3.0">
                            <SimplePredicate field="emoji_density" operator="greaterThan" value="0.010204081"/>
                            <ScoreDistribution value="0" recordCount="0.0" confidence="0.0"/>
                            <ScoreDistribution value="1" recordCount="4.0" confidence="1.0"/>
                        </Node>
                    </Node>
                </TreeModel>
            </Segment>
            <Segment id="16" weight="1">
                <True/>
                <TreeModel modelName="DecisionTreeClassifier" functionName="classification" missingValuePenalty="1.0">
                    <MiningSchema>
                        <MiningField name="length" usageType="active"/>
                        <MiningField name="char_count" usageType="active"/>
                        <MiningField name="sentence_count" usageType="active"/>
                        <MiningField name="avg_sentence_length" usageType="active"/>
                        <MiningField name="exclamation_count" usageType="active"/>
                        <MiningField name="question_count" usageType="active"/>
                        <MiningField name="tilde_count" usageType="active"/>
                        <MiningField name="period_count" usageType="active"/>
                        <MiningField name="punct_density" usageType="active"/>
                        <MiningField name="emoji_count" usageType="active"/>
                        <MiningField name="emoji_density" usageType="active"/>
                        <MiningField name="ai_template_count" usageType="active"/>
                        <MiningField name="colloquial_count" usageType="active"/>
                        <MiningField name="ends_with_period" usageType="active"/>
                        <MiningField name="has_complete_structure" usageType="active"/>
                        <MiningField name="first_person_count" usageType="active"/>
                        <MiningField name="nin_count" usageType="active"/>
                        <MiningField name="ni_count" usageType="active"/>
                    </MiningSchema>
                    <Node id="0" recordCount="8.0">
                        <True/>
                        <Node id="1" score="0" recordCount="4.0">
                            <SimplePredicate field="sentence_count" operator="lessOrEqual" value="1.5"/>
                            <ScoreDistribution value="0" recordCount="7.0" confidence="1.0"/>
                            <ScoreDistribution value="1" recordCount="0.0" confidence="0.0"/>
                        </Node>
                        <Node id="2" score="1" recordCount="4.0">
                            <SimplePredicate field="sentence_count" operator="greaterThan" value="1.5"/>
                            <ScoreDistribution value="0" recordCount="0.0" confidence="0.0"/>
                            <ScoreDistribution value="1" recordCount="5.0" confidence="1.0"/>
                        </Node>
                    </Node>
                </TreeModel>
            </Segment>
            <Segment id="17" weight="1">
                <True/>
                <TreeModel modelName="DecisionTreeClassifier" functionName="classification" missingValuePenalty="1.0">
                    <MiningSchema>
                        <MiningField name="length" usageType="active"/>
                        <MiningField name="char_count" usageType="active"/>
                        <MiningField name="sentence_count" usageType="active"/>
                        <MiningField name="avg_sentence_length" usageType="active"/>
                        <MiningField name="exclamation_count" usageType="active"/>
                        <MiningField name="question_count" usageType="active"/>
                        <MiningField name="tilde_count" usageType="active"/>
                        <MiningField name="period_count" usageType="active"/>
                        <MiningField name="punct_density" usageType="active"/>
                        <MiningField name="emoji_count" usageType="active"/>
                        <MiningField name="emoji_density" usageType="active"/>
                        <MiningField name="ai_template_count" usageType="active"/>
                        <MiningField name="colloquial_count" usageType="active"/>
                        <MiningField name="ends_with_period" usageType="active"/>
                        <MiningField name="has_complete_structure" usageType="active"/>
                        <MiningField name="first_person_count" usageType="active"/>
                        <MiningField name="nin_count" usageType="active"/>
                        <MiningField name="ni_count" usageType="active"/>
                    </MiningSchema>
                    <Node id="0" recordCount="6.0">
                        <True/>
                        <Node id="1" score="0" recordCount="4.0">
                            <SimplePredicate field="length" operator="lessOrEqual" value="38.5"/>
                            <ScoreDistribution value="0" recordCount="10.0" confidence="1.0"/>
                            <ScoreDistribution value="1" recordCount="0.0" confidence="0.0"/>
                        </Node>
                        <Node id="2" score="1" recordCount="2.0">
                            <SimplePredicate field="length" operator="greaterThan" value="38.5"/>
                            <ScoreDistribution value="0" recordCount="0.0" confidence="0.0"/>
                            <ScoreDistribution value="1" recordCount="2.0" confidence="1.0"/>
                        </Node>
                    </Node>
                </TreeModel>
            </Segment>
            <Segment id="18" weight="1">
                <True/>
                <TreeModel modelName="DecisionTreeClassifier" functionName="classification" missingValuePenalty="1.0">
                    <MiningSchema>
                        <MiningField name="length" usageType="active"/>
                        <MiningField name="char_count" usageType="active"/>
                        <MiningField name="sentence_count" usageType="active"/>
                        <MiningField name="avg_sentence_length" usageType="active"/>
                        <MiningField name="exclamation_count" usageType="active"/>
                        <MiningField name="question_count" usageType="active"/>
                        <MiningField name="tilde_count" usageType="active"/>
                        <MiningField name="period_count" usageType="active"/>
                        <MiningField name="punct_density" usageType="active"/>
                        <MiningField name="emoji_count" usageType="active"/>
                        <MiningField name="emoji_density" usageType="active"/>
                        <MiningField name="ai_template_count" usageType="active"/>
                        <MiningField name="colloquial_count" usageType="active"/>
                        <MiningField name="ends_with_period" usageType="active"/>
                        <MiningField name="has_complete_structure" usageType="active"/>
                        <MiningField name="first_person_count" usageType="active"/>
                        <MiningField name="nin_count" usageType="active"/>
                        <MiningField name="ni_count" usageType="active"/>
                    </MiningSchema>
                    <Node id="0" recordCount="7.0">
                        <True/>
                        <Node id="1" score="0" recordCount="5.0">
                            <SimplePredicate field="sentence_count" operator="lessOrEqual" value="1.5"/>
                            <ScoreDistribution value="0" recordCount="9.0" confidence="1.0"/>
                            <ScoreDistribution value="1" recordCount="0.0" confidence="0.0"/>
                        </Node>
                        <Node id="2" recordCount="2.0">
                            <SimplePredicate field="sentence_count" operator="greaterThan" value="1.5"/>
                            <Node id="3" score="0" recordCount="1.0">
                                <SimplePredicate field="char_count" operator="lessOrEqual" value="46.5"/>
                                <ScoreDistribution value="0" recordCount="2.0" confidence="1.0"/>
                                <ScoreDistribution value="1" recordCount="0.0" confidence="0.0"/>
                            </Node>
                            <Node id="4" score="1" recordCount="1.0">
                                <SimplePredicate field="char_count" operator="greaterThan" value="46.5"/>
                                <ScoreDistribution value="0" recordCount="0.0" confidence="0.0"/>
                                <ScoreDistribution value="1" recordCount="1.0" confidence="1.0"/>
                            </Node>
                        </Node>
                    </Node>
                </TreeModel>
            </Segment>
            <Segment id="19" weight="1">
                <True/>
                <TreeModel modelName="DecisionTreeClassifier" functionName="classification" missingValuePenalty="1.0">
                    <MiningSchema>
                        <MiningField name="length" usageType="active"/>
                        <MiningField name="char_count" usageType="active"/>
                        <MiningField name="sentence_count" usageType="active"/>
                        <MiningField name="avg_sentence_length" usageType="active"/>
                        <MiningField name="exclamation_count" usageType="active"/>
                        <MiningField name="question_count" usageType="active"/>
                        <MiningField name="tilde_count" usageType="active"/>
                        <MiningField name="period_count" usageType="active"/>
                        <MiningField name="punct_density" usageType="active"/>
                        <MiningField name="emoji_count" usageType="active"/>
                        <MiningField name="emoji_density" usageType="active"/>
                        <MiningField name="ai_template_count" usageType="active"/>
                        <MiningField name="colloquial_count" usageType="active"/>
                        <MiningField name="ends_with_period" usageType="active"/>
                        <MiningField name="has_complete_structure" usageType="active"/>
                        <MiningField name="first_person_count" usageType="active"/>
                        <MiningField name="nin_count" usageType="active"/>
                        <MiningField name="ni_count" usageType="active"/>
                    </MiningSchema>
                    <Node id="0" recordCount="10.0">
                        <True/>
                        <Node id="1" score="0" recordCount="4.0">
                            <SimplePredicate field="punct_density" operator="lessOrEqual" value="0.008064516"/>
                            <ScoreDistribution value="0" recordCount="4.0" confidence="1.0"/>
                            <ScoreDistribution value="1" recordCount="0.0" confidence="0.0"/>
                        </Node>
                        <Node id="2" recordCount="6.0">
                            <SimplePredicate field="punct_density" operator="greaterThan" value="0.008064516"/>
                            <Node id="3" recordCount="5.0">
                                <SimplePredicate field="punct_density" operator="lessOrEqual" value="0.055612244"/>
                                <Node id="4" score="0" recordCount="2.0">
                                    <SimplePredicate field="emoji_count" operator="lessOrEqual" value="0.5"/>
                                    <ScoreDistribution value="0" recordCount="2.0" confidence="1.0"/>
                                    <ScoreDistribution value="1" recordCount="0.0" confidence="0.0"/>
                                </Node>
                                <Node id="5" score="1" recordCount="3.0">
                                    <SimplePredicate field="emoji_count" operator="greaterThan" value="0.5"/>
                                    <ScoreDistribution value="0" recordCount="0.0" confidence="0.0"/>
                                    <ScoreDistribution value="1" recordCount="3.0" confidence="1.0"/>
                                </Node>
                            </Node>
                            <Node id="6" score="1" recordCount="1.0">
                                <SimplePredicate field="punct_density" operator="greaterThan" value="0.055612244"/>
                                <ScoreDistribution value="0" recordCount="0.0" confidence="0.0"/>
                                <ScoreDistribution value="1" recordCount="3.0" confidence="1.0"/>
                            </Node>
                        </Node>
                    </Node>
                </TreeModel>
            </Segment>
            <Segment id="20" weight="1">
                <True/>
                <TreeModel modelName="DecisionTreeClassifier" functionName="classification" missingValuePenalty="1.0">
                    <MiningSchema>
                        <MiningField name="length" usageType="active"/>
                        <MiningField name="char_count" usageType="active"/>
                        <MiningField name="sentence_count" usageType="active"/>
                        <MiningField name="avg_sentence_length" usageType="active"/>
                        <MiningField name="exclamation_count" usageType="active"/>
                        <MiningField name="question_count" usageType="active"/>
                        <MiningField name="tilde_count" usageType="active"/>
                        <MiningField name="period_count" usageType="active"/>
                        <MiningField name="punct_density" usageType="active"/>
                        <MiningField name="emoji_count" usageType="active"/>
                        <MiningField name="emoji_density" usageType="active"/>
                        <MiningField name="ai_template_count" usageType="active"/>
                        <MiningField name="colloquial_count" usageType="active"/>
                        <MiningField name="ends_with_period" usageType="active"/>
                        <MiningField name="has_complete_structure" usageType="active"/>
                        <MiningField name="first_person_count" usageType="active"/>
                        <MiningField name="nin_count" usageType="active"/>
                        <MiningField name="ni_count" usageType="active"/>
                    </MiningSchema>
                    <Node id="0" recordCount="7.0">
                        <True/>
                        <Node id="1" score="0" recordCount="3.0">
                            <SimplePredicate field="sentence_count" operator="lessOrEqual" value="1.5"/>
                            <ScoreDistribution value="0" recordCount="7.0" confidence="1.0"/>
                            <ScoreDistribution value="1" recordCount="0.0" confidence="0.0"/>
                        </Node>
                        <Node id="2" score="1" recordCount="4.0">
                            <SimplePredicate field="sentence_count" operator="greaterThan" value="1.5"/>
                            <ScoreDistribution value="0" recordCount="0.0" confidence="0.0"/>
                            <ScoreDistribution value="1" recordCount="5.0" confidence="1.0"/>
                        </Node>
                    </Node>
                </TreeModel>
            </Segment>
            <Segment id="21" weight="1">
                <True/>
                <TreeModel modelName="DecisionTreeClassifier" functionName="classification" missingValuePenalty="1.0">
                    <MiningSchema>
                        <MiningField name="length" usageType="active"/>
                        <MiningField name="char_count" usageType="active"/>
                        <MiningField name="sentence_count" usageType="active"/>
                        <MiningField name="avg_sentence_length" usageType="active"/>
                        <MiningField name="exclamation_count" usageType="active"/>
                        <MiningField name="question_count" usageType="active"/>
                        <MiningField name="tilde_count" usageType="active"/>
                        <MiningField name="period_count" usageType="active"/>
                        <MiningField name="punct_density" usageType="active"/>
                        <MiningField name="emoji_count" usageType="active"/>
                        <MiningField name="emoji_density" usageType="active"/>
                        <MiningField name="ai_template_count" usageType="active"/>
                        <MiningField name="colloquial_count" usageType="active"/>
                        <MiningField name="ends_with_period" usageType="active"/>
                        <MiningField name="has_complete_structure" usageType="active"/>
                        <MiningField name="first_person_count" usageType="active"/>
                        <MiningField name="nin_count" usageType="active"/>
                        <MiningField name="ni_count" usageType="active"/>
                    </MiningSchema>
                    <Node id="0" recordCount="8.0">
                        <True/>
                        <Node id="1" score="0" recordCount="6.0">
                            <SimplePredicate field="emoji_count" operator="lessOrEqual" value="0.5"/>
                            <ScoreDistribution value="0" recordCount="10.0" confidence="1.0"/>
                            <ScoreDistribution value="1" recordCount="0.0" confidence="0.0"/>
                        </Node>
                        <Node id="2" score="1" recordCount="2.0">
                            <SimplePredicate field="emoji_count" operator="greaterThan" value="0.5"/>
                            <ScoreDistribution value="0" recordCount="0.0" confidence="0.0"/>
                            <ScoreDistribution value="1" recordCount="2.0" confidence="1.0"/>
                        </Node>
                    </Node>
                </TreeModel>
            </Segment>
            <Segment id="22" weight="1">
                <True/>
                <TreeModel modelName="DecisionTreeClassifier" functionName="classification" missingValuePenalty="1.0">
                    <MiningSchema>
                        <MiningField name="length" usageType="active"/>
                        <MiningField name="char_count" usageType="active"/>
                        <MiningField name="sentence_count" usageType="active"/>
                        <MiningField name="avg_sentence_length" usageType="active"/>
                        <MiningField name="exclamation_count" usageType="active"/>
                        <MiningField name="question_count" usageType="active"/>
                        <MiningField name="tilde_count" usageType="active"/>
                        <MiningField name="period_count" usageType="active"/>
                        <MiningField name="punct_density" usageType="active"/>
                        <MiningField name="emoji_count" usageType="active"/>
                        <MiningField name="emoji_density" usageType="active"/>
                        <MiningField name="ai_template_count" usageType="active"/>
                        <MiningField name="colloquial_count" usageType="active"/>
                        <MiningField name="ends_with_period" usageType="active"/>
                        <MiningField name="has_complete_structure" usageType="active"/>
                        <MiningField name="first_person_count" usageType="active"/>
                        <MiningField name="nin_count" usageType="active"/>
                        <MiningField name="ni_count" usageType="active"/>
                    </MiningSchema>
                    <Node id="0" recordCount="8.0">
                        <True/>
                        <Node id="1" score="0" recordCount="5.0">
                            <SimplePredicate field="emoji_density" operator="lessOrEqual" value="0.010204081"/>
                            <ScoreDistribution value="0" recordCount="7.0" confidence="1.0"/>
                            <ScoreDistribution value="1" recordCount="0.0" confidence="0.0"/>
                        </Node>
                        <Node id="2" score="1" recordCount="3.0">
                            <SimplePredicate field="emoji_density" operator="greaterThan" value="0.010204081"/>
                            <ScoreDistribution value="0" recordCount="0.0" confidence="0.0"/>
                            <ScoreDistribution value="1" recordCount="5.0" confidence="1.0"/>
                        </Node>
                    </Node>
                </TreeModel>
            </Segment>
            <Segment id="23" weight="1">
                <True/>
                <TreeModel modelName="DecisionTreeClassifier" functionName="classification" missingValuePenalty="1.0">
                    <MiningSchema>
                        <MiningField name="length" usageType="active"/>
                        <MiningField name="char_count" usageType="active"/>
                        <MiningField name="sentence_count" usageType="active"/>
                        <MiningField name="avg_sentence_length" usageType="active"/>
                        <MiningField name="exclamation_count" usageType="active"/>
                        <MiningField name="question_count" usageType="active"/>
                        <MiningField name="tilde_count" usageType="active"/>
                        <MiningField name="period_count" usageType="active"/>
                        <MiningField name="punct_density" usageType="active"/>
                        <MiningField name="emoji_count" usageType="active"/>
                        <MiningField name="emoji_density" usageType="active"/>
                        <MiningField name="ai_template_count" usageType="active"/>
                        <MiningField name="colloquial_count" usageType="active"/>
                        <MiningField name="ends_with_period" usageType="active"/>
                        <MiningField name="has_complete_structure" usageType="active"/>
                        <MiningField name="first_person_count" usageType="active"/>
                        <MiningField name="nin_count" usageType="active"/>
                        <MiningField name="ni_count" usageType="active"/>
                    </MiningSchema>
                    <Node id="0" recordCount="7.0">
                        <True/>
                        <Node id="1" score="0" recordCount="5.0">
                            <SimplePredicate field="char_count" operator="lessOrEqual" value="38.5"/>
                            <ScoreDistribution value="0" recordCount="10.0" confidence="1.0"/>
                            <ScoreDistribution value="1" recordCount="0.0" confidence="0.0"/>
                        </Node>
                        <Node id="2" score="1" recordCount="2.0">
                            <SimplePredicate field="char_count" operator="greaterThan" value="38.5"/>
                            <ScoreDistribution value="0" recordCount="0.0" confidence="0.0"/>
                            <ScoreDistribution value="1" recordCount="2.0" confidence="1.0"/>
                        </Node>
                    </Node>
                </TreeModel>
            </Segment>
            <Segment id="24" weight="1">
                <True/>
                <TreeModel modelName="DecisionTreeClassifier" functionName="classification" missingValuePenalty="1.0">
                    <MiningSchema>
                        <MiningField name="length" usageType="active"/>
                        <MiningField name="char_count" usageType="active"/>
                        <MiningField name="sentence_count" usageType="active"/>
                        <MiningField name="avg_sentence_length" usageType="active"/>
                        <MiningField name="exclamation_count" usageType="active"/>
                        <MiningField name="question_count" usageType="active"/>
                        <MiningField name="tilde_count" usageType="active"/>
                        <MiningField name="period_count" usageType="active"/>
                        <MiningField name="punct_density" usageType="active"/>
                        <MiningField name="emoji_count" usageType="active"/>
                        <MiningField name="emoji_density" usageType="active"/>
                        <MiningField name="ai_template_count" usageType="active"/>
                        <MiningField name="colloquial_count" usageType="active"/>
                        <MiningField name="ends_with_period" usageType="active"/>
                        <MiningField name="has_complete_structure" usageType="active"/>
                        <MiningField name="first_person_count" usageType="active"/>
                        <MiningField name="nin_count" usageType="active"/>
                        <MiningField name="ni_count" usageType="active"/>
                    </MiningSchema>
                    <Node id="0" recordCount="9.0">
                        <True/>
                        <Node id="1" score="0" recordCount="5.0">
                            <SimplePredicate field="length" operator="lessOrEqual" value="34.5"/>
                            <ScoreDistribution value="0" recordCount="6.0" confidence="1.0"/>
                            <ScoreDistribution value="1" recordCount="0.0" confidence="0.0"/>
                        </Node>
                        <Node id="2" score="1" recordCount="4.0">
                            <SimplePredicate field="length" operator="greaterThan" value="34.5"/>
                            <ScoreDistribution value="0" recordCount="0.0" confidence="0.0"/>
                            <ScoreDistribution value="1" recordCount="6.0" confidence="1.0"/>
                        </Node>
                    </Node>
                </TreeModel>
            </Segment>
            <Segment id="25" weight="1">
                <True/>
                <TreeModel modelName="DecisionTreeClassifier" functionName="classification" missingValuePenalty="1.0">
                    <MiningSchema>
                        <MiningField name="length" usageType="active"/>
                        <MiningField name="char_count" usageType="active"/>
                        <MiningField name="sentence_count" usageType="active"/>
                        <MiningField name="avg_sentence_length" usageType="active"/>
                        <MiningField name="exclamation_count" usageType="active"/>
                        <MiningField name="question_count" usageType="active"/>
                        <MiningField name="tilde_count" usageType="active"/>
                        <MiningField name="period_count" usageType="active"/>
                        <MiningField name="punct_density" usageType="active"/>
                        <MiningField name="emoji_count" usageType="active"/>
                        <MiningField name="emoji_density" usageType="active"/>
                        <MiningField name="ai_template_count" usageType="active"/>
                        <MiningField name="colloquial_count" usageType="active"/>
                        <MiningField name="ends_with_period" usageType="active"/>
                        <MiningField name="has_complete_structure" usageType="active"/>
                        <MiningField name="first_person_count" usageType="active"/>
                        <MiningField name="nin_count" usageType="active"/>
                        <MiningField name="ni_count" usageType="active"/>
                    </MiningSchema>
                    <Node id="0" recordCount="6.0">
                        <True/>
                        <Node id="1" score="0" recordCount="2.0">
                            <SimplePredicate field="char_count" operator="lessOrEqual" value="34.5"/>
                            <ScoreDistribution value="0" recordCount="4.0" confidence="1.0"/>
                            <ScoreDistribution value="1" recordCount="0.0" confidence="0.0"/>
                        </Node>
                        <Node id="2" score="1" recordCount="4.0">
                            <SimplePredicate field="char_count" operator="greaterThan" value="34.5"/>
                            <ScoreDistribution value="0" recordCount="0.0" confidence="0.0"/>
                            <ScoreDistribution value="1" recordCount="8.0" confidence="1.0"/>
                        </Node>
                    </Node>
                </TreeModel>
            </Segment>
            <Segment id="26" weight="1">
                <True/>
                <TreeModel modelName="DecisionTreeClassifier" functionName="classification" missingValuePenalty="1.0">
                    <MiningSchema>
                        <MiningField name="length" usageType="active"/>
                        <MiningField name="char_count" usageType="active"/>
                        <MiningField name="sentence_count" usageType="active"/>
                        <MiningField name="avg_sentence_length" usageType="active"/>
                        <MiningField name="exclamation_count" usageType="active"/>
                        <MiningField name="question_count" usageType="active"/>
                        <MiningField name="tilde_count" usageType="active"/>
                        <MiningField name="period_count" usageType="active"/>
                        <MiningField name="punct_density" usageType="active"/>
                        <MiningField name="emoji_count" usageType="active"/>
                        <MiningField name="emoji_density" usageType="active"/>
                        <MiningField name="ai_template_count" usageType="active"/>
                        <MiningField name="colloquial_count" usageType="active"/>
                        <MiningField name="ends_with_period" usageType="active"/>
                        <MiningField name="has_complete_structure" usageType="active"/>
                        <MiningField name="first_person_count" usageType="active"/>
                        <MiningField name="nin_count" usageType="active"/>
                        <MiningField name="ni_count" usageType="active"/>
                    </MiningSchema>
                    <Node id="0" recordCount="6.0">
                        <True/>
                        <Node id="1" score="0" recordCount="2.0">
                            <SimplePredicate field="char_count" operator="lessOrEqual" value="33.0"/>
                            <ScoreDistribution value="0" recordCount="6.0" confidence="1.0"/>
                            <ScoreDistribution value="1" recordCount="0.0" confidence="0.0"/>
                        </Node>
                        <Node id="2" score="1" recordCount="4.0">
                            <SimplePredicate field="char_count" operator="greaterThan" value="33.0"/>
                            <ScoreDistribution value="0" recordCount="0.0" confidence="0.0"/>
                            <ScoreDistribution value="1" recordCount="6.0" confidence="1.0"/>
                        </Node>
                    </Node>
                </TreeModel>
            </Segment>
            <Segment id="27" weight="1">
                <True/>
                <TreeModel modelName="DecisionTreeClassifier" functionName="classification" missingValuePenalty="1.0">
                    <MiningSchema>
                        <MiningField name="length" usageType="active"/>
                        <MiningField name="char_count" usageType="active"/>
                        <MiningField name="sentence_count" usageType="active"/>
                        <MiningField name="avg_sentence_length" usageType="active"/>
                        <MiningField name="exclamation_count" usageType="active"/>
                        <MiningField name="question_count" usageType="active"/>
                        <MiningField name="tilde_count" usageType="active"/>
                        <MiningField name="period_count" usageType="active"/>
                        <MiningField name="punct_density" usageType="active"/>
                        <MiningField name="emoji_count" usageType="active"/>
                        <MiningField name="emoji_density" usageType="active"/>
                        <MiningField name="ai_template_count" usageType="active"/>
                        <MiningField name="colloquial_count" usageType="active"/>
                        <MiningField name="ends_with_period" usageType="active"/>
                        <MiningField name="has_complete_structure" usageType="active"/>
                        <MiningField name="first_person_count" usageType="active"/>
                        <MiningField name="nin_count" usageType="active"/>
                        <MiningField name="ni_count" usageType="active"/>
                    </MiningSchema>
                    <Node id="0" recordCount="8.0">
                        <True/>
                        <Node id="1" score="0" recordCount="6.0">
                            <SimplePredicate field="avg_sentence_length" operator="lessOrEqual" value="23.5"/>
                            <ScoreDistribution value="0" recordCount="10.0" confidence="1.0"/>
                            <ScoreDistribution value="1" recordCount="0.0" confidence="0.0"/>
                        </Node>
                        <Node id="2" score="1" recordCount="2.0">
                            <SimplePredicate field="avg_sentence_length" operator="greaterThan" value="23.5"/>
                            <ScoreDistribution value="0" recordCount="0.0" confidence="0.0"/>
                            <ScoreDistribution value="1" recordCount="2.0" confidence="1.0"/>
                        </Node>
                    </Node>
                </TreeModel>
            </Segment>
            <Segment id="28" weight="1">
                <True/>
                <TreeModel modelName="DecisionTreeClassifier" functionName="classification" missingValuePenalty="1.0">
                    <MiningSchema>
                        <MiningField name="length" usageType="active"/>
                        <MiningField name="char_count" usageType="active"/>
                        <MiningField name="sentence_count" usageType="active"/>
                        <MiningField name="avg_sentence_length" usageType="active"/>
                        <MiningField name="exclamation_count" usageType="active"/>
                        <MiningField name="question_count" usageType="active"/>
                        <MiningField name="tilde_count" usageType="active"/>
                        <MiningField name="period_count" usageType="active"/>
                        <MiningField name="punct_density" usageType="active"/>
                        <MiningField name="emoji_count" usageType="active"/>
                        <MiningField name="emoji_density" usageType="active"/>
                        <MiningField name="ai_template_count" usageType="active"/>
                        <MiningField name="colloquial_count" usageType="active"/>
                        <MiningField name="ends_with_period" usageType="active"/>
                        <MiningField name="has_complete_structure" usageType="active"/>
                        <MiningField name="first_person_count" usageType="active"/>
                        <MiningField name="nin_count" usageType="active"/>
                        <MiningField name="ni_count" usageType="active"/>
                    </MiningSchema>
                    <Node id="0" recordCount="8.0">
                        <True/>
                        <Node id="1" score="0" recordCount="6.0">
                            <SimplePredicate field="period_count" operator="lessOrEqual" value="0.5"/>
                            <ScoreDistribution value="0" recordCount="8.0" confidence="1.0"/>
                            <ScoreDistribution value="1" recordCount="0.0" confidence="0.0"/>
                        </Node>
                        <Node id="2" score="1" recordCount="2.0">
                            <SimplePredicate field="period_count" operator="greaterThan" value="0.5"/>
                            <ScoreDistribution value="0" recordCount="0.0" confidence="0.0"/>
                            <ScoreDistribution value="1" recordCount="4.0" confidence="1.0"/>
                        </Node>
                    </Node>
                </TreeModel>
            </Segment>
            <Segment id="29" weight="1">
                <True/>
                <TreeModel modelName="DecisionTreeClassifier" functionName="classification" missingValuePenalty="1.0">
                    <MiningSchema>
                        <MiningField name="length" usageType="active"/>
                        <MiningField name="char_count" usageType="active"/>
                        <MiningField name="sentence_count" usageType="active"/>
                        <MiningField name="avg_sentence_length" usageType="active"/>
                        <MiningField name="exclamation_count" usageType="active"/>
                        <MiningField name="question_count" usageType="active"/>
                        <MiningField name="tilde_count" usageType="active"/>
                        <MiningField name="period_count" usageType="active"/>
                        <MiningField name="punct_density" usageType="active"/>
                        <MiningField name="emoji_count" usageType="active"/>
                        <MiningField name="emoji_density" usageType="active"/>
                        <MiningField name="ai_template_count" usageType="active"/>
                        <MiningField name="colloquial_count" usageType="active"/>
                        <MiningField name="ends_with_period" usageType="active"/>
                        <MiningField name="has_complete_structure" usageType="active"/>
                        <MiningField name="first_person_count" usageType="active"/>
                        <MiningField name="nin_count" usageType="active"/>
                        <MiningField name="ni_count" usageType="active"/>
                    </MiningSchema>
                    <Node id="0" recordCount="10.0">
                        <True/>
                        <Node id="1" score="0" recordCount="7.0">
                            <SimplePredicate field="emoji_density" operator="lessOrEqual" value="0.010204081"/>
                            <ScoreDistribution value="0" recordCount="7.0" confidence="1.0"/>
                            <ScoreDistribution value="1" recordCount="0.0" confidence="0.0"/>
                        </Node>
                        <Node id="2" score="1" recordCount="3.0">
                            <SimplePredicate field="emoji_density" operator="greaterThan" value="0.010204081"/>
                            <ScoreDistribution value="0" recordCount="0.0" confidence="0.0"/>
                            <ScoreDistribution value="1" recordCount="5.0" confidence="1.0"/>
                        </Node>
                    </Node>
                </TreeModel>
            </Segment>
            <Segment id="30" weight="1">
                <True/>
                <TreeModel modelName="DecisionTreeClassifier" functionName="classification" missingValuePenalty="1.0">
                    <MiningSchema>
                        <MiningField name="length" usageType="active"/>
                        <MiningField name="char_count" usageType="active"/>
                        <MiningField name="sentence_count" usageType="active"/>
                        <MiningField name="avg_sentence_length" usageType="active"/>
                        <MiningField name="exclamation_count" usageType="active"/>
                        <MiningField name="question_count" usageType="active"/>
                        <MiningField name="tilde_count" usageType="active"/>
                        <MiningField name="period_count" usageType="active"/>
                        <MiningField name="punct_density" usageType="active"/>
                        <MiningField name="emoji_count" usageType="active"/>
                        <MiningField name="emoji_density" usageType="active"/>
                        <MiningField name="ai_template_count" usageType="active"/>
                        <MiningField name="colloquial_count" usageType="active"/>
                        <MiningField name="ends_with_period" usageType="active"/>
                        <MiningField name="has_complete_structure" usageType="active"/>
                        <MiningField name="first_person_count" usageType="active"/>
                        <MiningField name="nin_count" usageType="active"/>
                        <MiningField name="ni_count" usageType="active"/>
                    </MiningSchema>
                    <Node id="0" recordCount="7.0">
                        <True/>
                        <Node id="1" score="0" recordCount="3.0">
                            <SimplePredicate field="emoji_density" operator="lessOrEqual" value="0.010204081"/>
                            <ScoreDistribution value="0" recordCount="5.0" confidence="1.0"/>
                            <ScoreDistribution value="1" recordCount="0.0" confidence="0.0"/>
                        </Node>
                        <Node id="2" score="1" recordCount="4.0">
                            <SimplePredicate field="emoji_density" operator="greaterThan" value="0.010204081"/>
                            <ScoreDistribution value="0" recordCount="0.0" confidence="0.0"/>
                            <ScoreDistribution value="1" recordCount="7.0" confidence="1.0"/>
                        </Node>
                    </Node>
                </TreeModel>
            </Segment>
            <Segment id="31" weight="1">
                <True/>
                <TreeModel modelName="DecisionTreeClassifier" functionName="classification" missingValuePenalty="1.0">
                    <MiningSchema>
                        <MiningField name="length" usageType="active"/>
                        <MiningField name="char_count" usageType="active"/>
                        <MiningField name="sentence_count" usageType="active"/>
                        <MiningField name="avg_sentence_length" usageType="active"/>
                        <MiningField name="exclamation_count" usageType="active"/>
                        <MiningField name="question_count" usageType="active"/>
                        <MiningField name="tilde_count" usageType="active"/>
                        <MiningField name="period_count" usageType="active"/>
                        <MiningField name="punct_density" usageType="active"/>
                        <MiningField name="emoji_count" usageType="active"/>
                        <MiningField name="emoji_density" usageType="active"/>
                        <MiningField name="ai_template_count" usageType="active"/>
                        <MiningField name="colloquial_count" usageType="active"/>
                        <MiningField name="ends_with_period" usageType="active"/>
                        <MiningField name="has_complete_structure" usageType="active"/>
                        <MiningField name="first_person_count" usageType="active"/>
                        <MiningField name="nin_count" usageType="active"/>
                        <MiningField name="ni_count" usageType="active"/>
                    </MiningSchema>
                    <Node id="0" recordCount="8.0">
                        <True/>
                        <Node id="1" score="1" recordCount="1.0">
                            <SimplePredicate field="avg_sentence_length" operator="lessOrEqual" value="11.75"/>
                            <ScoreDistribution value="0" recordCount="0.0" confidence="0.0"/>
                            <ScoreDistribution value="1" recordCount="2.0" confidence="1.0"/>
                        </Node>
                        <Node id="2" recordCount="7.0">
                            <SimplePredicate field="avg_sentence_length" operator="greaterThan" value="11.75"/>
                            <Node id="3" score="0" recordCount="5.0">
                                <SimplePredicate field="emoji_count" operator="lessOrEqual" value="0.5"/>
                                <ScoreDistribution value="0" recordCount="7.0" confidence="1.0"/>
                                <ScoreDistribution value="1" recordCount="0.0" confidence="0.0"/>
                            </Node>
                            <Node id="4" score="1" recordCount="2.0">
                                <SimplePredicate field="emoji_count" operator="greaterThan" value="0.5"/>
                                <ScoreDistribution value="0" recordCount="0.0" confidence="0.0"/>
                                <ScoreDistribution value="1" recordCount="3.0" confidence="1.0"/>
                            </Node>
                        </Node>
                    </Node>
                </TreeModel>
            </Segment>
            <Segment id="32" weight="1">
                <True/>
                <TreeModel modelName="DecisionTreeClassifier" functionName="classification" missingValuePenalty="1.0">
                    <MiningSchema>
                        <MiningField name="length" usageType="active"/>
                        <MiningField name="char_count" usageType="active"/>
                        <MiningField name="sentence_count" usageType="active"/>
                        <MiningField name="avg_sentence_length" usageType="active"/>
                        <MiningField name="exclamation_count" usageType="active"/>
                        <MiningField name="question_count" usageType="active"/>
                        <MiningField name="tilde_count" usageType="active"/>
                        <MiningField name="period_count" usageType="active"/>
                        <MiningField name="punct_density" usageType="active"/>
                        <MiningField name="emoji_count" usageType="active"/>
                        <MiningField name="emoji_density" usageType="active"/>
                        <MiningField name="ai_template_count" usageType="active"/>
                        <MiningField name="colloquial_count" usageType="active"/>
                        <MiningField name="ends_with_period" usageType="active"/>
                        <MiningField name="has_complete_structure" usageType="active"/>
                        <MiningField name="first_person_count" usageType="active"/>
                        <MiningField name="nin_count" usageType="active"/>
                        <MiningField name="ni_count" usageType="active"/>
                    </MiningSchema>
                    <Node id="0" recordCount="9.0">
                        <True/>
                        <Node id="1" score="0" recordCount="6.0">
                            <SimplePredicate field="emoji_density" operator="lessOrEqual" value="0.010204081"/>
                            <ScoreDistribution value="0" recordCount="8.0" confidence="1.0"/>
                            <ScoreDistribution value="1" recordCount="0.0" confidence="0.0"/>
                        </Node>
                        <Node id="2" score="1" recordCount="3.0">
                            <SimplePredicate field="emoji_density" operator="greaterThan" value="0.010204081"/>
                            <ScoreDistribution value="0" recordCount="0.0" confidence="0.0"/>
                            <ScoreDistribution value="1" recordCount="4.0" confidence="1.0"/>
                        </Node>
                    </Node>
                </TreeModel>
            </Segment>
            <Segment id="33" weight="1">
                <True/>
                <TreeModel modelName="DecisionTreeClassifier" functionName="classification" missingValuePenalty="1.0">
                    <MiningSchema>
                        <MiningField name="length" usageType="active"/>
                        <MiningField name="char_count" usageType="active"/>
                        <MiningField name="sentence_count" usageType="active"/>
                        <MiningField name="avg_sentence_length" usageType="active"/>
                        <MiningField name="exclamation_count" usageType="active"/>
                        <MiningField name="question_count" usageType="active"/>
                        <MiningField name="tilde_count" usageType="active"/>
                        <MiningField name="period_count" usageType="active"/>
                        <MiningField name="punct_density" usageType="active"/>
                        <MiningField name="emoji_count" usageType="active"/>
                        <MiningField name="emoji_density" usageType="active"/>
                        <MiningField name="ai_template_count" usageType="active"/>
                        <MiningField name="colloquial_count" usageType="active"/>
                        <MiningField name="ends_with_period" usageType="active"/>
                        <MiningField name="has_complete_structure" usageType="active"/>
                        <MiningField name="first_person_count" usageType="active"/>
                        <MiningField name="nin_count" usageType="active"/>
                        <MiningField name="ni_count" usageType="active"/>
                    </MiningSchema>
                    <Node id="0" recordCount="7.0">
                        <True/>
                        <Node id="1" score="0" recordCount="5.0">
                            <SimplePredicate field="length" operator="lessOrEqual" value="40.0"/>
                            <ScoreDistribution value="0" recordCount="10.0" confidence="1.0"/>
                            <ScoreDistribution value="1" recordCount="0.0" confidence="0.0"/>
                        </Node>
                        <Node id="2" score="1" recordCount="2.0">
                            <SimplePredicate field="length" operator="greaterThan" value="40.0"/>
                            <ScoreDistribution value="0" recordCount="0.0" confidence="0.0"/>
                            <ScoreDistribution value="1" recordCount="2.0" confidence="1.0"/>
                        </Node>
                    </Node>
                </TreeModel>
            </Segment>
            <Segment id="34" weight="1">
                <True/>
                <TreeModel modelName="DecisionTreeClassifier" functionName="classification" missingValuePenalty="1.0">
                    <MiningSchema>
                        <MiningField name="length" usageType="active"/>
                        <MiningField name="char_count" usageType="active"/>
                        <MiningField name="sentence_count" usageType="active"/>
